/*!
 * The following copyright notice may not be removed under any circumstances.
 * 
 * Copyright:
 * Copyright (c) 1995, The Font Bureau, Inc. 1995, 1997, 1998.  All rights
 * reserved.
 * 
 * Trademark:
 * The Font Bureau, Inc.
 * 
 * Description:
 * ATF Agency Gothic was designed by M.F. Benton in 1932 as a single titling face.
 * In 1990 David Berlow saw potential in the squared forms of the narrow, monotone
 * capitals. He designed a lowercase and added a bold to produce Font Bureau
 * Agency, an immediate popular hit. Sensing further possibilities, he worked with
 * Tobias Frere-Jones and Jonathan Corum to expand Agency into a major series,
 * offering five weights in five widths for text & display settings.
 * 
 * Manufacturer:
 * The Font Bureau, Inc.
 * 
 * Designer:
 * The Font Bureau, Inc.
 * 
 * Vendor URL:
 * http://www.fontbureau.com
 */
Cufon.registerFont({"w":819,"face":{"font-family":"AgencyFb","font-weight":400,"font-stretch":"condensed","units-per-em":"2048","panose-1":"2 11 5 3 2 2 2 2 2 4","ascent":"1638","descent":"-410","bbox":"-326 -1889 1889.02 410","underline-thickness":"102","underline-position":"-209","unicode-range":"U+0020-U+F002"},"glyphs":{" ":{"w":401},"!":{"d":"281,-1565r-31,1213r-92,0r-31,-1213r154,0xm279,0r-150,0r0,-176r150,0r0,176","w":408},"\"":{"d":"530,-1565r-28,492r-88,0r-29,-492r145,0xm244,-1565r-31,492r-86,0r-31,-492r148,0","w":629},"#":{"d":"1016,-1022r-195,0r-84,479r207,0r0,115r-227,0r-76,428r-127,0r78,-428r-242,0r-74,428r-126,0r75,-428r-174,0r0,-115r195,0r84,-479r-207,0r0,-115r227,0r76,-428r127,0r-78,428r242,0r74,-428r127,0r-76,428r174,0r0,115xm696,-1022r-241,0r-84,479r239,0","w":1067},"$":{"d":"483,-1554r91,-3v103,0,155,38,155,113r0,354r-139,0r0,-348r-107,0r0,604r201,244v30,37,45,76,45,117r0,352v0,75,-52,113,-155,113r-91,-2r0,133r-121,0r0,-133r-88,2v-103,0,-155,-38,-155,-113r0,-387r139,0r0,381r104,0r0,-645r-198,-246v-30,-37,-45,-77,-45,-119r0,-307v0,-75,52,-113,155,-113r88,3r0,-134r121,0r0,134xm362,-975r0,-463r-104,0r0,330xm590,-127r0,-375r-107,-129r0,504r107,0","w":850},"%":{"d":"1157,-1556r-860,1556r-115,0r0,-8r861,-1557r114,0r0,9xm1186,-796v50,-2,98,53,98,103r0,591v1,54,-44,102,-98,102r-291,0v-47,2,-96,-55,-96,-102r0,-591v-2,-45,50,-103,96,-103r291,0xm1163,-112r0,-567r-243,0r0,567r243,0xm447,-1565v50,-2,98,53,98,103r0,591v1,54,-44,102,-98,102r-291,0v-47,2,-96,-55,-96,-102r0,-591v-2,-45,50,-103,96,-103r291,0xm424,-881r0,-567r-243,0r0,567r243,0","w":1372},"&":{"d":"629,-1565v64,-1,112,47,112,111r0,328r-139,0r0,-316r-342,0r0,471r141,94r449,0r0,121r-115,0r0,756r-506,0v-64,1,-110,-47,-110,-111r0,-532v0,-45,17,-78,51,-100r117,-76v-62,-40,-164,-78,-164,-170r0,-465v-1,-64,47,-111,110,-111r396,0xm598,-123r0,-633r-199,0r-143,92r0,541r342,0","w":891},"'":{"d":"244,-1565r-31,492r-86,0r-31,-492r148,0","w":340},"(":{"d":"244,-682v0,379,82,601,229,872r0,11r-121,0v-331,-524,-331,-1242,0,-1766r121,0r0,11v-148,272,-229,491,-229,872","w":539},")":{"d":"297,-682v0,-378,-82,-601,-229,-872r0,-11r118,0v331,524,331,1242,0,1766r-118,0r0,-11v148,-272,229,-492,229,-872","w":539},"*":{"d":"715,-1143r-66,109r-207,-154r25,260r-123,0r27,-260r-209,154r-64,-109r240,-102r-240,-105r64,-106r209,151r-27,-260r123,0r-25,260r207,-151r66,106r-240,105","w":813},"+":{"d":"769,-629r-288,0r0,283r-123,0r0,-283r-288,0r0,-116r288,0r0,-283r123,0r0,283r288,0r0,116","w":838},",":{"d":"266,-176r-88,287r-96,0r29,-287r155,0","w":340},"-":{"d":"508,-535r-412,0r0,-124r412,0r0,124","w":604},"\u2010":{"d":"508,-535r-412,0r0,-124r412,0r0,124","w":604},".":{"d":"246,0r-152,0r0,-176r152,0r0,176","w":340},"\/":{"d":"840,-1556r-662,1556r-133,0r0,-8r662,-1557r133,0r0,9","w":885},"0":{"d":"651,-1565v64,-1,113,47,113,111r0,1343v1,64,-49,111,-113,111r-415,0v-64,1,-111,-47,-111,-111r0,-1343v-1,-64,47,-111,111,-111r415,0xm625,-123r0,-1319r-361,0r0,1319r361,0","w":889},"1":{"d":"281,0r-140,0r0,-1085r-61,0r88,-480r113,0r0,1565","w":416},"2":{"d":"594,-1565v64,-1,111,47,111,111r0,332v0,40,-12,86,-37,137r-414,862r453,0r0,123r-621,0r0,-74r479,-995r0,-373r-319,0r0,352r-140,0r0,-364v-1,-64,47,-111,111,-111r377,0","w":799},"3":{"d":"637,-1565v64,-1,111,47,111,111r0,381v0,50,-20,89,-60,117r-186,131r188,131v40,27,60,67,60,119r0,464v1,64,-47,111,-111,111r-403,0v-64,1,-111,-47,-111,-111r0,-397r139,0r0,385r346,0r0,-479r-276,-207r0,-31r274,-204r0,-398r-342,0r0,352r-139,0r0,-364v-1,-64,47,-111,111,-111r399,0","w":864},"4":{"d":"735,-408r-119,0r0,408r-131,0r0,-408r-442,0r0,-71r379,-1086r131,0r0,6r-360,1033r292,0r0,-568r131,0r0,568r119,0r0,118","w":784},"5":{"d":"616,-983v64,-1,111,47,111,111r0,761v1,64,-47,111,-111,111r-385,0v-64,1,-110,-47,-110,-111r0,-397r139,0r0,385r328,0r0,-737r-463,0r18,-705r572,0r0,123r-436,0r-17,459r354,0","w":842},"6":{"d":"635,-862v64,-1,110,46,110,110r0,641v1,64,-46,111,-110,111r-399,0v-64,1,-111,-47,-111,-111r0,-1343v-1,-64,47,-111,111,-111r395,0v64,-1,110,47,110,111r0,346r-139,0r0,-334r-338,0r0,580r371,0xm606,-123r0,-618r-342,0r0,618r342,0","w":868},"7":{"d":"692,-1493r-336,1493r-137,0r326,-1442r-334,0r0,230r-139,0r0,-353r620,0r0,72","w":743},"8":{"d":"641,-1565v64,-1,111,47,111,111r0,442v0,46,-17,80,-52,101r-147,92r149,98v36,23,54,57,54,100r0,510v1,64,-49,111,-113,111r-412,0v-64,1,-110,-47,-110,-111r0,-510v0,-45,17,-78,51,-100r152,-98r-148,-92v-34,-21,-51,-55,-51,-101r0,-442v-1,-64,47,-111,111,-111r405,0xm612,-993r0,-449r-348,0r0,449r174,116xm616,-123r0,-518r-178,-117r-178,117r0,518r356,0","w":883},"9":{"d":"629,-1565v64,-1,110,47,110,111r0,1343v1,64,-46,111,-110,111r-391,0v-64,1,-113,-47,-113,-111r0,-346r139,0r0,334r336,0r0,-579r-371,0v-64,1,-110,-47,-110,-111r0,-641v-1,-64,46,-111,110,-111r400,0xm600,-823r0,-619r-342,0r0,619r342,0","w":868},":":{"d":"246,-676r-152,0r0,-176r152,0r0,176xm246,0r-152,0r0,-176r152,0r0,176","w":340},";":{"d":"246,-676r-152,0r0,-176r152,0r0,176xm252,-176r-90,287r-96,0r28,-287r158,0","w":340},"<":{"d":"584,-242r-6,0r-502,-376r0,-72r508,-379r0,139r-371,275r371,274r0,139","w":698},"=":{"d":"801,-756r-699,0r0,-121r699,0r0,121xm801,-391r-699,0r0,-119r699,0r0,119","w":903},">":{"d":"623,-618r-508,376r0,-139r370,-274r-370,-275r0,-139r8,0r500,379r0,72","w":698},"?":{"d":"575,-1565v65,-1,113,46,113,111r0,352v0,40,-10,76,-31,107r-204,311r0,332r-140,0r0,-299v0,-44,10,-80,29,-109r207,-309r0,-373r-320,0r0,352r-139,0r0,-364v-1,-64,49,-111,113,-111r372,0xm459,0r-152,0r0,-176r152,0r0,176","w":782},"@":{"d":"1030,0r-840,0v-43,0,-65,-22,-65,-66r0,-1433v0,-44,22,-66,65,-66r775,0v43,0,65,22,65,66r0,1087v0,44,-22,66,-65,66r-508,0v-48,0,-72,-23,-72,-70r0,-368v0,-48,24,-72,72,-72r209,0r0,-279r-172,0r0,164r-101,0r0,-184v0,-48,24,-72,72,-72r229,0v48,0,72,24,72,72r0,733r188,0r0,-1073r-753,0r0,1425r829,0r0,70xm666,-436r0,-330r-179,0r0,330r179,0","w":1155},"A":{"d":"756,0r-138,0r-55,-348r-311,0r-55,348r-134,0r279,-1569r137,0xm545,-471r-137,-848r-138,848r275,0"},"B":{"d":"637,-1565v64,-1,111,47,111,111r0,465v2,93,-105,130,-166,170r118,76v35,21,52,55,52,100r0,532v1,64,-47,111,-111,111r-516,0r0,-1565r512,0xm608,-971r0,-471r-344,0r0,565r205,0xm612,-123r0,-541r-141,-92r-207,0r0,633r348,0","w":870},"C":{"d":"639,-1565v64,-1,113,47,113,111r0,364r-140,0r0,-352r-348,0r0,1319r348,0r0,-385r140,0r0,397v1,64,-49,111,-113,111r-403,0v-64,1,-111,-47,-111,-111r0,-1343v-1,-64,47,-111,111,-111r403,0","w":870},"D":{"d":"483,-1565v163,-3,287,120,287,283r0,999v3,162,-125,283,-287,283r-358,0r0,-1565r358,0xm449,-123v106,1,182,-67,182,-174r0,-973v2,-101,-73,-172,-174,-172r-193,0r0,1319r185,0","w":889},"E":{"d":"639,0r-514,0r0,-1565r508,0r0,123r-369,0r0,584r336,0r0,125r-336,0r0,610r375,0r0,123","w":731},"F":{"d":"629,-1442r-365,0r0,594r336,0r0,125r-336,0r0,723r-139,0r0,-1565r504,0r0,123","w":696},"G":{"d":"647,-1565v64,-1,111,47,111,111r0,364r-140,0r0,-352r-354,0r0,1319r354,0r0,-541r-167,0r0,-120r307,0r0,673v1,64,-47,111,-111,111r-411,0v-64,1,-111,-47,-111,-111r0,-1343v-1,-64,47,-111,111,-111r411,0","w":881},"H":{"d":"780,0r-139,0r0,-752r-377,0r0,752r-139,0r0,-1565r139,0r0,688r377,0r0,-688r139,0r0,1565","w":905},"I":{"d":"272,0r-139,0r0,-1565r139,0r0,1565","w":408},"J":{"d":"201,0v-64,1,-111,-47,-111,-111r0,-397r139,0r0,385r308,0r0,-1442r139,0r0,1454v1,64,-47,111,-111,111r-364,0","w":801},"K":{"d":"778,0r-153,0r-361,-752r0,752r-139,0r0,-1565r139,0r0,703r328,-703r151,0r0,9r-354,745","w":788},"L":{"d":"625,0r-500,0r0,-1565r139,0r0,1442r361,0r0,123","w":690},"M":{"d":"899,0r-131,0r0,-991v0,-14,5,-55,14,-123r-256,967r-28,0r-256,-967v9,69,14,110,14,123r0,991r-131,0r0,-1565r129,0r254,1018v1,5,3,20,4,45v0,-10,-1,-25,4,-45r254,-1018r129,0r0,1565","w":1024},"N":{"d":"770,0r-96,0r-418,-1151r0,1151r-131,0r0,-1565r104,0r410,1131r0,-1131r131,0r0,1565","w":895},"O":{"d":"674,-1565v64,-1,112,47,112,111r0,1343v1,64,-48,111,-112,111r-438,0v-64,1,-111,-47,-111,-111r0,-1343v-1,-64,47,-111,111,-111r438,0xm647,-123r0,-1319r-383,0r0,1319r383,0","w":911},"P":{"d":"633,-1565v64,-1,112,47,112,111r0,721v1,64,-48,112,-112,112r-369,0r0,621r-139,0r0,-1565r508,0xm606,-745r0,-697r-342,0r0,697r342,0","w":840},"Q":{"d":"676,-1565v64,-1,110,47,110,111r0,1233r107,86r0,137r-12,0r-103,-84v-12,55,-46,82,-102,82r-440,0v-64,1,-111,-47,-111,-111r0,-1343v-1,-64,47,-111,111,-111r440,0xm647,-123r0,-61r-166,-138r0,-137r13,0r153,127r0,-1110r-383,0r0,1319r383,0","w":922},"R":{"d":"649,-1565v64,-1,111,47,111,111r0,594v8,104,-115,124,-238,110r269,750r-146,0r-291,-838r19,-28r248,0r0,-576r-357,0r0,1442r-139,0r0,-1565r524,0","w":874},"S":{"d":"625,-1565v64,-1,110,47,110,111r0,364r-139,0r0,-352r-338,0r0,330r434,522v29,35,43,74,43,117r0,362v1,64,-46,111,-110,111r-394,0v-64,1,-112,-47,-112,-111r0,-397r139,0r0,385r338,0r0,-373r-432,-522v-30,-36,-45,-76,-45,-119r0,-317v-1,-64,48,-111,112,-111r394,0","w":856},"T":{"d":"664,-1442r-242,0r0,1442r-139,0r0,-1442r-244,0r0,-123r625,0r0,123","w":702},"U":{"d":"236,0v-64,1,-111,-47,-111,-111r0,-1454r139,0r0,1442r371,0r0,-1442r139,0r0,1454v1,64,-48,111,-112,111r-426,0","w":899},"V":{"d":"736,-1565r-271,1569r-131,0r-271,-1569r138,0r194,1246r6,102v1,-23,0,-58,7,-102r194,-1246r134,0","w":799},"W":{"d":"1061,-1565r-213,1569r-113,0r-170,-1180v-1,-21,-2,-51,-4,-92v0,21,2,52,-4,92r-170,1180r-113,0r-213,-1569r138,0r133,1129v1,25,2,63,4,112v-1,-25,-3,-63,4,-112r162,-1129r119,0r161,1129v1,25,3,63,4,112v0,-25,-1,-63,5,-112r133,-1129r137,0","w":1122},"X":{"d":"743,0r-143,0r-209,-643r-209,643r-139,0r0,-8r279,-793v-176,-507,-264,-761,-263,-764r146,0r188,594r195,-594r139,0r0,9r-260,747v185,537,277,806,276,809","w":786},"Y":{"d":"754,-1556r-190,633v-24,63,-56,169,-95,317r0,606r-139,0r0,-606v-8,-73,-88,-293,-95,-317r-190,-633r0,-9r141,0r215,783r213,-783r140,0r0,9","w":799},"Z":{"d":"649,0r-600,0r0,-74r440,-1368r-397,0r0,-123r557,0r0,72r-440,1370r440,0r0,123","w":705},"[":{"d":"129,-1454v-1,-64,47,-111,111,-111r266,0r0,123r-238,0r0,1567r238,0r0,123r-266,0v-64,1,-111,-47,-111,-111r0,-1591","w":594},"\\":{"d":"840,0r-133,0r-662,-1565r133,0","w":885},"]":{"d":"354,-1565v64,-1,113,47,113,111r0,1591v1,64,-49,111,-113,111r-266,0r0,-123r240,0r0,-1567r-240,0r0,-123r266,0","w":594},"^":{"d":"723,-1012r-113,0r-202,-387r-203,387r-109,0r0,-8r262,-545r105,0"},"_":{"d":"739,410r-739,0r0,-111r739,0r0,111","w":739},"`":{"d":"627,-1059r-92,0r-246,-231r0,-4r188,0r150,229r0,6"},"a":{"d":"659,0r-131,0r0,-27r-158,21v-65,8,-118,12,-157,12v-73,0,-109,-36,-109,-108r0,-355v0,-75,38,-112,113,-112r313,0r0,-293r-286,0r0,166r-129,0r0,-164v0,-75,37,-113,112,-113r320,0v75,0,112,38,112,113r0,860xm530,-121r0,-344r-297,0r0,350","w":768},"b":{"d":"668,-209v3,117,-90,209,-207,209r-352,0r0,-1565r133,0r0,619r158,-20v67,-9,119,-13,157,-13v74,0,111,36,111,109r0,661xm535,-229r0,-625r-293,8r0,729r184,0v73,0,109,-37,109,-112","w":776},"c":{"d":"649,-113v0,75,-37,113,-112,113r-316,0v-75,0,-112,-38,-112,-113r0,-747v0,-75,37,-113,112,-113r316,0v75,0,112,38,112,113r0,194r-131,0r0,-190r-276,0r0,739r276,0r0,-217r131,0r0,221","w":756},"d":{"d":"104,-764v-3,-117,90,-209,207,-209r219,0r0,-592r132,0r0,1565r-132,0r0,-27v-143,22,-222,33,-237,33v-112,2,-189,-89,-189,-201r0,-569xm530,-121r0,-735r-184,0v-73,0,-110,38,-110,113r0,520v0,75,37,112,110,112v17,0,79,-3,184,-10","w":772},"e":{"d":"653,-113v0,75,-37,113,-112,113r-320,0v-75,0,-112,-38,-112,-113r0,-747v0,-75,37,-113,112,-113r320,0v75,0,112,38,112,113r0,350r-45,47r-370,0r0,352r286,0r0,-178r129,0r0,176xm524,-569r0,-293r-286,0r0,293r286,0","w":764},"f":{"d":"477,-1448r-188,0r0,475r166,0r0,117r-166,0r0,856r-131,0r0,-856r-113,0r0,-117r113,0r0,-479v0,-75,37,-113,112,-113r207,0r0,117","w":487},"g":{"d":"104,-778v-2,-112,77,-204,189,-201v15,0,94,11,237,33r0,-27r132,0r0,1229v0,75,-38,113,-113,113r-316,0v-77,0,-118,-48,-115,-143r3,-99r131,0r0,129r278,0r0,-256r-219,0v-117,2,-207,-92,-207,-209r0,-569xm530,-117r0,-735v-105,-7,-167,-10,-184,-10v-73,0,-110,37,-110,112r0,521v0,75,37,112,110,112r184,0","w":772},"h":{"d":"668,0r-133,0r0,-854r-293,8r0,846r-133,0r0,-1565r133,0r0,619r158,-20v67,-9,119,-13,157,-13v74,0,111,36,111,109r0,870","w":774},"i":{"d":"250,-1186r-135,0r0,-168r135,0r0,168xm248,0r-131,0r0,-973r131,0r0,973","w":365},"j":{"d":"250,-1186r-135,0r0,-168r135,0r0,168xm248,256v0,75,-38,113,-113,113r-166,0r0,-117r148,0r0,-1225r131,0r0,1229","w":365},"k":{"d":"655,0r-145,0r-268,-496r0,496r-133,0r0,-1565r133,0r0,994r250,-402r143,0r0,4r-283,430","w":686},"l":{"d":"248,0r-131,0r0,-1565r131,0r0,1565","w":365},"m":{"d":"1087,0r-133,0r0,-854r-290,8r0,846r-132,0r0,-854r-290,8r0,846r-133,0r0,-973r133,0r0,27r156,-21v106,-9,194,-34,247,25r167,-23v73,-9,128,-14,165,-14v73,0,110,36,110,109r0,870","w":1194},"n":{"d":"668,0r-133,0r0,-854r-293,8r0,846r-133,0r0,-973r133,0r0,27r157,-21v64,-8,117,-12,158,-12v74,0,111,36,111,109r0,870","w":774},"o":{"d":"668,-113v0,75,-38,113,-113,113r-334,0v-75,0,-112,-38,-112,-113r0,-747v0,-75,37,-113,112,-113r334,0v75,0,113,38,113,113r0,747xm535,-117r0,-739r-293,0r0,739r293,0","w":776},"p":{"d":"668,-209v3,117,-90,209,-207,209r-219,0r0,369r-133,0r0,-1342r133,0r0,27r158,-20v67,-9,119,-13,157,-13v74,0,111,36,111,109r0,661xm535,-229r0,-625r-293,8r0,729r184,0v73,0,109,-37,109,-112","w":772},"q":{"d":"104,-778v-2,-112,77,-204,189,-201v15,0,94,11,237,33r0,-27r132,0r0,1342r-132,0r0,-369r-219,0v-117,2,-207,-92,-207,-209r0,-569xm530,-117r0,-735v-105,-7,-167,-10,-184,-10v-73,0,-110,37,-110,112r0,521v0,75,37,112,110,112r184,0","w":772},"r":{"d":"618,-653r-131,0r0,-201r-245,8r0,846r-133,0r0,-973r133,0r0,27v78,-12,188,-33,266,-33v73,0,110,36,110,109r0,217","w":678},"s":{"d":"633,-113v0,75,-38,113,-113,113r-305,0v-75,0,-113,-38,-113,-113r0,-221r131,0r0,219r269,0r0,-194r-348,-285v-73,-48,-50,-158,-50,-266v0,-75,38,-113,113,-113r301,0v75,0,113,38,113,113r0,194r-129,0r0,-192r-269,0r0,170r351,285v75,50,49,178,49,290","w":735},"t":{"d":"459,0r-189,0v-75,0,-112,-38,-112,-113r0,-743r-117,0r0,-117r117,0r0,-303r131,0r0,303r170,0r0,117r-170,0r0,739r170,0r0,117","w":520},"u":{"d":"666,0r-131,0r0,-27r-159,21v-132,15,-267,42,-267,-96r0,-871r131,0r0,854r295,-8r0,-846r131,0r0,973","w":774},"v":{"d":"657,-973r-241,975r-121,0r-242,-975r137,0r166,766r168,-766r133,0","w":711},"w":{"d":"979,-973r-201,975r-119,0r-143,-739r-143,739r-117,0r-201,-975r125,0r137,750r142,-750r116,0r142,750r137,-750r125,0","w":1034},"x":{"d":"637,0r-135,0r-164,-385r-166,385r-131,0r227,-500r-213,-473r135,0r150,357r154,-357r129,0r-213,469","w":678},"y":{"d":"657,-973r-234,965r-97,377r-131,0r98,-377r-240,-965r137,0r166,766r168,-766r133,0","w":711},"z":{"d":"575,0r-512,0r0,-61r355,-793r-318,0r0,-119r475,0r0,62r-356,792r356,0r0,119","w":655},"{":{"d":"512,130r98,-3r0,121r-174,0v-116,2,-205,-89,-205,-205r0,-563r-168,-156r0,-29r168,-155r0,-500v-2,-116,89,-205,205,-205r174,0r0,121r-98,-3v-94,0,-141,35,-141,104r0,464v0,41,-13,82,-49,110r-101,79v56,48,150,94,150,188r0,529v0,69,47,106,141,103","w":698},"|":{"d":"272,342r-127,0r0,-1907r127,0r0,1907","w":418},"}":{"d":"262,-1565v115,-3,205,90,205,205r0,500r168,155r0,29r-168,156r0,563v3,115,-90,205,-205,205r-174,0r0,-121r98,3v95,0,142,-34,142,-103r0,-529v-2,-93,94,-141,149,-188v-56,-48,-149,-94,-149,-189r0,-464v0,-69,-47,-107,-142,-104r-98,3r0,-121r174,0","w":698},"~":{"d":"864,-545v5,104,-108,96,-186,66r-377,-144r0,158r-131,0r0,-209v-5,-104,109,-94,186,-65r377,143r0,-158r131,0r0,209","w":1034},"\u00c4":{"d":"756,0r-138,0r-55,-348r-311,0r-55,348r-134,0r279,-1569r137,0xm545,-471r-137,-848r-138,848r275,0xm612,-1653r-147,0r0,-151r147,0r0,151xm354,-1653r-147,0r0,-151r147,0r0,151"},"\u00c5":{"d":"756,0r-138,0r-55,-348r-311,0r-55,348r-134,0r279,-1569r137,0xm545,-471r-137,-848r-138,848r275,0xm602,-1588v0,61,-31,92,-92,92r-201,0v-61,0,-92,-31,-92,-92r0,-188v0,-62,31,-93,92,-93r201,0v61,0,92,31,92,93r0,188xm500,-1588r0,-188r-181,0r0,188r181,0"},"\u00c7":{"d":"639,-1565v64,-1,113,47,113,111r0,364r-140,0r0,-352r-348,0r0,1319r348,0r0,-385r140,0r0,397v1,64,-49,111,-113,111r-403,0v-64,1,-111,-47,-111,-111r0,-1343v-1,-64,47,-111,111,-111r403,0xm622,307v0,53,-27,80,-80,80r-205,0v-53,0,-80,-27,-80,-80r0,-113r105,0r0,103r153,0r0,-107v-52,-29,-135,-49,-133,-125r0,-67r107,0r0,69v52,30,133,48,133,127r0,113","w":870},"\u00c9":{"d":"639,0r-514,0r0,-1565r508,0r0,123r-369,0r0,584r336,0r0,125r-336,0r0,610r375,0r0,123xm579,-1884r-245,231r-93,0r0,-6r150,-229r188,0r0,4","w":731},"\u00d1":{"d":"770,0r-96,0r-418,-1151r0,1151r-131,0r0,-1565r104,0r410,1131r0,-1131r131,0r0,1565xm659,-1847v-3,87,24,201,-74,196v-65,-3,-190,-62,-254,-90r0,88r-106,0v3,-86,-24,-201,73,-196v65,3,190,62,254,90r0,-88r107,0","w":895},"\u00d6":{"d":"674,-1565v64,-1,112,47,112,111r0,1343v1,64,-48,111,-112,111r-438,0v-64,1,-111,-47,-111,-111r0,-1343v-1,-64,47,-111,111,-111r438,0xm647,-123r0,-1319r-383,0r0,1319r383,0xm658,-1653r-147,0r0,-151r147,0r0,151xm400,-1653r-147,0r0,-151r147,0r0,151","w":911},"\u00dc":{"d":"236,0v-64,1,-111,-47,-111,-111r0,-1454r139,0r0,1442r371,0r0,-1442r139,0r0,1454v1,64,-48,111,-112,111r-426,0xm652,-1653r-147,0r0,-151r147,0r0,151xm394,-1653r-147,0r0,-151r147,0r0,151","w":899},"\u00e1":{"d":"659,0r-131,0r0,-27r-158,21v-65,8,-118,12,-157,12v-73,0,-109,-36,-109,-108r0,-355v0,-75,38,-112,113,-112r313,0r0,-293r-286,0r0,166r-129,0r0,-164v0,-75,37,-113,112,-113r320,0v75,0,112,38,112,113r0,860xm530,-121r0,-344r-297,0r0,350xm604,-1290r-245,231r-93,0r0,-6r150,-229r188,0r0,4","w":768},"\u00e0":{"d":"659,0r-131,0r0,-27r-158,21v-65,8,-118,12,-157,12v-73,0,-109,-36,-109,-108r0,-355v0,-75,38,-112,113,-112r313,0r0,-293r-286,0r0,166r-129,0r0,-164v0,-75,37,-113,112,-113r320,0v75,0,112,38,112,113r0,860xm530,-121r0,-344r-297,0r0,350xm507,-1059r-92,0r-246,-231r0,-4r188,0r150,229r0,6","w":768},"\u00e2":{"d":"659,0r-131,0r0,-27r-158,21v-65,8,-118,12,-157,12v-73,0,-109,-36,-109,-108r0,-355v0,-75,38,-112,113,-112r313,0r0,-293r-286,0r0,166r-129,0r0,-164v0,-75,37,-113,112,-113r320,0v75,0,112,38,112,113r0,860xm530,-121r0,-344r-297,0r0,350xm623,-1059r-86,0r-151,-117r-152,117r-82,0r0,-8r197,-227r78,0r196,227r0,8","w":768},"\u00e4":{"d":"659,0r-131,0r0,-27r-158,21v-65,8,-118,12,-157,12v-73,0,-109,-36,-109,-108r0,-355v0,-75,38,-112,113,-112r313,0r0,-293r-286,0r0,166r-129,0r0,-164v0,-75,37,-113,112,-113r320,0v75,0,112,38,112,113r0,860xm530,-121r0,-344r-297,0r0,350xm590,-1059r-147,0r0,-151r147,0r0,151xm332,-1059r-147,0r0,-151r147,0r0,151","w":768},"\u00e3":{"d":"659,0r-131,0r0,-27r-158,21v-65,8,-118,12,-157,12v-73,0,-109,-36,-109,-108r0,-355v0,-75,38,-112,113,-112r313,0r0,-293r-286,0r0,166r-129,0r0,-164v0,-75,37,-113,112,-113r320,0v75,0,112,38,112,113r0,860xm530,-121r0,-344r-297,0r0,350xm605,-1253v-3,87,24,201,-74,196v-65,-3,-190,-62,-254,-90r0,88r-106,0v3,-86,-24,-201,73,-196v65,3,190,62,254,90r0,-88r107,0","w":768},"\u00e5":{"d":"659,0r-131,0r0,-27r-158,21v-65,8,-118,12,-157,12v-73,0,-109,-36,-109,-108r0,-355v0,-75,38,-112,113,-112r313,0r0,-293r-286,0r0,166r-129,0r0,-164v0,-75,37,-113,112,-113r320,0v75,0,112,38,112,113r0,860xm530,-121r0,-344r-297,0r0,350xm580,-1151v0,61,-31,92,-92,92r-201,0v-61,0,-92,-31,-92,-92r0,-188v0,-62,31,-93,92,-93r201,0v61,0,92,31,92,93r0,188xm478,-1151r0,-188r-181,0r0,188r181,0","w":768},"\u00e7":{"d":"649,-113v0,75,-37,113,-112,113r-316,0v-75,0,-112,-38,-112,-113r0,-747v0,-75,37,-113,112,-113r316,0v75,0,112,38,112,113r0,194r-131,0r0,-190r-276,0r0,739r276,0r0,-217r131,0r0,221xm570,309v0,53,-27,80,-80,80r-205,0v-53,0,-80,-27,-80,-80r0,-113r105,0r0,103r153,0r0,-107v-52,-29,-135,-49,-133,-125r0,-67r107,0r0,69v52,30,133,48,133,127r0,113","w":756},"\u00e9":{"d":"653,-113v0,75,-37,113,-112,113r-320,0v-75,0,-112,-38,-112,-113r0,-747v0,-75,37,-113,112,-113r320,0v75,0,112,38,112,113r0,350r-45,47r-370,0r0,352r286,0r0,-178r129,0r0,176xm524,-569r0,-293r-286,0r0,293r286,0xm593,-1290r-245,231r-93,0r0,-6r150,-229r188,0r0,4","w":764},"\u00e8":{"d":"653,-113v0,75,-37,113,-112,113r-320,0v-75,0,-112,-38,-112,-113r0,-747v0,-75,37,-113,112,-113r320,0v75,0,112,38,112,113r0,350r-45,47r-370,0r0,352r286,0r0,-178r129,0r0,176xm524,-569r0,-293r-286,0r0,293r286,0xm502,-1059r-92,0r-246,-231r0,-4r188,0r150,229r0,6","w":764},"\u00ea":{"d":"653,-113v0,75,-37,113,-112,113r-320,0v-75,0,-112,-38,-112,-113r0,-747v0,-75,37,-113,112,-113r320,0v75,0,112,38,112,113r0,350r-45,47r-370,0r0,352r286,0r0,-178r129,0r0,176xm524,-569r0,-293r-286,0r0,293r286,0xm617,-1059r-86,0r-151,-117r-152,117r-82,0r0,-8r197,-227r78,0r196,227r0,8","w":764},"\u00eb":{"d":"653,-113v0,75,-37,113,-112,113r-320,0v-75,0,-112,-38,-112,-113r0,-747v0,-75,37,-113,112,-113r320,0v75,0,112,38,112,113r0,350r-45,47r-370,0r0,352r286,0r0,-178r129,0r0,176xm524,-569r0,-293r-286,0r0,293r286,0xm584,-1059r-147,0r0,-151r147,0r0,151xm326,-1059r-147,0r0,-151r147,0r0,151","w":764},"\u00ed":{"d":"248,0r-131,0r0,-973r131,0r0,973xm407,-1290r-245,231r-93,0r0,-6r150,-229r188,0r0,4","w":365},"\u00ec":{"d":"248,0r-131,0r0,-973r131,0r0,973xm291,-1059r-92,0r-246,-231r0,-4r188,0r150,229r0,6","w":365},"\u00ee":{"d":"248,0r-131,0r0,-973r131,0r0,973xm420,-1044r-86,0r-151,-117r-152,117r-82,0r0,-8r197,-227r78,0r196,227r0,8","w":365},"\u00ef":{"d":"248,0r-131,0r0,-973r131,0r0,973xm385,-1059r-147,0r0,-151r147,0r0,151xm127,-1059r-147,0r0,-151r147,0r0,151","w":365},"\u00f1":{"d":"668,0r-133,0r0,-854r-293,8r0,846r-133,0r0,-973r133,0r0,27r157,-21v64,-8,117,-12,158,-12v74,0,111,36,111,109r0,870xm605,-1253v-3,87,24,201,-74,196v-65,-3,-190,-62,-254,-90r0,88r-106,0v3,-86,-24,-201,73,-196v65,3,190,62,254,90r0,-88r107,0","w":774},"\u00f3":{"d":"668,-113v0,75,-38,113,-113,113r-334,0v-75,0,-112,-38,-112,-113r0,-747v0,-75,37,-113,112,-113r334,0v75,0,113,38,113,113r0,747xm535,-117r0,-739r-293,0r0,739r293,0xm606,-1290r-245,231r-93,0r0,-6r150,-229r188,0r0,4","w":776},"\u00f2":{"d":"668,-113v0,75,-38,113,-113,113r-334,0v-75,0,-112,-38,-112,-113r0,-747v0,-75,37,-113,112,-113r334,0v75,0,113,38,113,113r0,747xm535,-117r0,-739r-293,0r0,739r293,0xm504,-1059r-92,0r-246,-231r0,-4r188,0r150,229r0,6","w":776},"\u00f4":{"d":"668,-113v0,75,-38,113,-113,113r-334,0v-75,0,-112,-38,-112,-113r0,-747v0,-75,37,-113,112,-113r334,0v75,0,113,38,113,113r0,747xm535,-117r0,-739r-293,0r0,739r293,0xm626,-1059r-86,0r-151,-117r-152,117r-82,0r0,-8r197,-227r78,0r196,227r0,8","w":776},"\u00f6":{"d":"668,-113v0,75,-38,113,-113,113r-334,0v-75,0,-112,-38,-112,-113r0,-747v0,-75,37,-113,112,-113r334,0v75,0,113,38,113,113r0,747xm535,-117r0,-739r-293,0r0,739r293,0xm591,-1059r-147,0r0,-151r147,0r0,151xm333,-1059r-147,0r0,-151r147,0r0,151","w":776},"\u00f5":{"d":"668,-113v0,75,-38,113,-113,113r-334,0v-75,0,-112,-38,-112,-113r0,-747v0,-75,37,-113,112,-113r334,0v75,0,113,38,113,113r0,747xm535,-117r0,-739r-293,0r0,739r293,0xm606,-1253v-3,87,24,201,-74,196v-65,-3,-190,-62,-254,-90r0,88r-106,0v3,-86,-24,-201,73,-196v65,3,190,62,254,90r0,-88r107,0","w":776},"\u00fa":{"d":"666,0r-131,0r0,-27r-159,21v-132,15,-267,42,-267,-96r0,-871r131,0r0,854r295,-8r0,-846r131,0r0,973xm605,-1290r-245,231r-93,0r0,-6r150,-229r188,0r0,4","w":774},"\u00f9":{"d":"666,0r-131,0r0,-27r-159,21v-132,15,-267,42,-267,-96r0,-871r131,0r0,854r295,-8r0,-846r131,0r0,973xm501,-1059r-92,0r-246,-231r0,-4r188,0r150,229r0,6","w":774},"\u00fb":{"d":"666,0r-131,0r0,-27r-159,21v-132,15,-267,42,-267,-96r0,-871r131,0r0,854r295,-8r0,-846r131,0r0,973xm625,-1059r-86,0r-151,-117r-152,117r-82,0r0,-8r197,-227r78,0r196,227r0,8","w":774},"\u00fc":{"d":"666,0r-131,0r0,-27r-159,21v-132,15,-267,42,-267,-96r0,-871r131,0r0,854r295,-8r0,-846r131,0r0,973xm590,-1059r-147,0r0,-151r147,0r0,151xm332,-1059r-147,0r0,-151r147,0r0,151","w":774},"\u2020":{"d":"815,-1024r-299,0r0,1024r-133,0r0,-1024r-299,0r0,-117r299,0r0,-424r133,0r0,424r299,0r0,117","w":899},"\u00b0":{"d":"575,-889v0,69,-35,103,-104,103r-274,0v-70,0,-105,-34,-105,-103r0,-573v0,-69,35,-103,105,-103r274,0v69,0,104,34,104,103r0,573xm461,-887r0,-577r-256,0r0,577r256,0","w":668},"\u00a2":{"d":"326,-299r-80,2v-91,0,-137,-38,-137,-115r0,-747v-7,-104,98,-124,217,-113r0,-293r106,0r0,293r79,-1v92,0,138,38,138,114r0,194r-131,0r0,-190r-86,0r0,739r86,0r0,-217r131,0r0,221v0,77,-46,115,-138,115r-79,-2r0,299r-106,0r0,-299xm326,-416r0,-739r-84,0r0,739r84,0","w":756},"\u00a3":{"d":"645,-1565v64,-1,113,47,113,111r0,364r-140,0r0,-354r-305,0r0,633r295,0r0,121r-295,0r0,567r457,0r0,123r-709,0r0,-123r115,0r0,-567r-115,0r0,-121r115,0r0,-643v-1,-64,47,-111,111,-111r358,0","w":856},"\u00a7":{"d":"625,-1565v64,-1,110,47,110,111r0,244r-135,0r0,-236r-344,0r0,242r414,231v88,40,65,149,65,262v0,48,-21,84,-63,107r-133,74r131,73v43,25,65,61,65,109r0,237v1,64,-46,111,-110,111r-394,0v-64,1,-112,-47,-112,-111r0,-243r137,0r0,235r344,0r0,-241r-416,-232v-88,-39,-65,-149,-65,-262v0,-48,21,-84,63,-107r135,-73r-133,-74v-43,-24,-65,-60,-65,-109r0,-237v-1,-64,48,-111,112,-111r394,0xm608,-690r0,-184r-180,-101r-180,101r0,184r180,100","w":854},"\u2022":{"d":"733,-598v0,78,-39,117,-117,117r-368,0v-78,0,-117,-39,-117,-117r0,-367v0,-77,39,-116,117,-116r368,0v78,0,117,39,117,116r0,367","w":864},"\u00b6":{"d":"96,-1454v-1,-64,47,-111,111,-111r616,0r0,1565r-133,0r0,-621r-176,0r0,621r-133,0r0,-621r-174,0v-64,1,-111,-48,-111,-112r0,-721xm690,-745r0,-697r-266,0r0,697r266,0","w":948},"\u00df":{"d":"469,-1565v118,-3,207,92,207,209r0,316v0,53,-11,99,-44,126r-114,93r117,92v29,29,43,72,43,127r0,493v0,73,-36,109,-109,109r-184,0r0,-117r162,0r0,-536r-164,-152r0,-33r162,-149r0,-348v0,-75,-36,-113,-109,-113r-194,0r0,1448r-133,0r0,-1565r360,0","w":788},"\u00ae":{"d":"1030,-66v0,44,-22,66,-65,66r-775,0v-43,0,-65,-22,-65,-66r0,-1433v0,-44,22,-66,65,-66r775,0v43,0,65,22,65,66r0,1433xm954,-70r0,-1425r-753,0r0,1425r753,0xm772,-829v-7,67,-35,70,-125,69v97,273,145,411,144,414r-105,0r-162,-471r21,-31r127,0r0,-287r-185,0r0,789r-100,0r0,-881r315,0v47,0,70,24,70,72r0,326","w":1155},"\u00a9":{"d":"1030,-66v0,44,-22,66,-65,66r-775,0v-43,0,-65,-22,-65,-66r0,-1433v0,-44,22,-66,65,-66r775,0v43,0,65,22,65,66r0,1433xm954,-70r0,-1425r-753,0r0,1425r753,0xm768,-416v0,47,-24,70,-72,70r-237,0v-49,0,-74,-23,-74,-70r0,-739v0,-48,25,-72,74,-72r237,0v48,0,72,24,72,72r0,211r-102,0r0,-189r-179,0r0,695r179,0r0,-207r102,0r0,229","w":1155},"\u2122":{"d":"1012,-668r-94,0r0,-549r-117,455r-33,0r-117,-455r0,549r-94,0r0,-897r90,0r137,564r142,-564r86,0r0,897xm453,-1475r-142,0r0,807r-94,0r0,-807r-141,0r0,-90r377,0r0,90","w":1116},"\u00b4":{"d":"526,-1290r-245,231r-93,0r0,-6r150,-229r188,0r0,4"},"\u00a8":{"d":"612,-1059r-147,0r0,-151r147,0r0,151xm354,-1059r-147,0r0,-151r147,0r0,151"},"\u2260":{"d":"801,-391r-347,0r-80,322r-117,-29r72,-293r-227,0r0,-119r257,0r61,-246r-318,0r0,-121r348,0r79,-320r117,29r-72,291r227,0r0,121r-257,0r-61,246r318,0r0,119","w":903},"\u00c6":{"d":"1044,0r-505,0r0,-348r-267,0r-84,348r-133,0r387,-1565r596,0r0,123r-362,0r0,584r332,0r0,125r-332,0r0,610r368,0r0,123xm539,-471r0,-987r-240,987r240,0","w":1137},"\u00d8":{"d":"893,-1432r-875,1432r0,-133r875,-1432r0,133xm674,-1565v64,-1,112,47,112,111r0,1343v1,64,-48,111,-112,111r-438,0v-64,1,-111,-47,-111,-111r0,-1343v-1,-64,47,-111,111,-111r438,0xm647,-123r0,-1319r-383,0r0,1319r383,0","w":911},"\u221e":{"d":"1236,-252v0,75,-38,113,-113,113r-251,0v-92,-2,-181,-187,-237,-264v-47,70,-111,186,-161,237v-18,19,-43,27,-72,27r-253,0v-75,0,-113,-38,-113,-113r0,-508v0,-75,38,-113,113,-113r253,0v94,3,179,185,235,264v57,-79,142,-264,235,-264r251,0v75,0,113,38,113,113r0,508xm1102,-256r0,-500r-238,0r-161,249r162,251r237,0xm569,-504r-165,-252r-235,0r0,500r240,0","w":1270},"\u00b1":{"d":"768,-650r-289,0r0,254r-119,0r0,-254r-290,0r0,-114r290,0r0,-264r119,0r0,264r289,0r0,114xm772,-190r-704,0r0,-123r704,0r0,123","w":838},"\u2264":{"d":"584,-302r-6,0r-502,-346r0,-72r508,-349r0,139r-371,245r371,244r0,139xm584,-145r-508,0r0,-119r508,0r0,119","w":698},"\u2265":{"d":"604,-648r-508,346r0,-139r370,-244r-370,-245r0,-139r6,0r502,349r0,72xm603,-145r-507,0r0,-119r507,0r0,119","w":698},"\u00a5":{"d":"754,-1556r-189,626r172,0r0,117r-207,0r-55,182r262,0r0,117r-268,0r0,514r-139,0r0,-514r-269,0r0,-117r263,0r-56,-182r-207,0r0,-117r172,0v-126,-421,-189,-632,-188,-635r141,0r215,783r213,-783r140,0r0,9","w":799},"\u00b5":{"d":"676,0r-131,0r0,-28v-63,30,-264,52,-305,-11r0,408r-131,0r0,-1342r131,0r0,720v0,93,46,139,138,139v63,0,119,-5,166,-16r0,-843r132,0r0,973","w":784},"\u03bc":{"d":"676,0r-131,0r0,-28v-63,30,-264,52,-305,-11r0,408r-131,0r0,-1342r131,0r0,720v0,93,46,139,138,139v63,0,119,-5,166,-16r0,-843r132,0r0,973","w":784},"\u2202":{"d":"124,-752v-1,-64,47,-110,111,-110r357,0r-327,-703r151,0r329,706r0,748v1,64,-47,111,-111,111r-399,0v-64,1,-111,-47,-111,-111r0,-641xm605,-123r0,-618r-342,0r0,618r342,0","w":868},"\u2211":{"d":"649,0r-564,0r0,-108r382,-688r-382,-644r0,-125r558,0r0,123r-420,0r357,587r0,119r-356,613r425,0r0,123","w":731},"\u220f":{"d":"764,-1442r-148,0r0,1442r-135,0r0,-1442r-163,0r0,1442r-135,0r0,-1442r-144,0r0,-123r725,0r0,123","w":804},"\u03c0":{"d":"764,-770r-148,0r0,770r-135,0r0,-770r-163,0r0,770r-135,0r0,-770r-144,0r0,-123r725,0r0,123","w":804},"\u222b":{"d":"289,289v1,63,-45,111,-108,111r-213,1r0,-117r189,0r1,-1736v0,-75,37,-113,112,-113r207,0r0,117r-188,0r0,1737","w":487},"\u00aa":{"d":"557,-786r-115,0r0,-23v-152,18,-233,27,-243,27v-57,0,-86,-29,-86,-86r0,-287v0,-59,29,-88,88,-88r243,0r0,-225r-215,0r0,125r-110,0r0,-132v0,-60,30,-90,90,-90r256,0v61,0,92,30,92,90r0,689xm444,-891r0,-262r-223,0r0,268xm557,-559r-444,0r0,-98r444,0r0,98","w":670},"\u00ba":{"d":"561,-877v0,61,-30,91,-90,91r-266,0v-61,0,-92,-30,-92,-91r0,-598v0,-60,31,-90,92,-90r266,0v60,0,90,30,90,90r0,598xm449,-887r0,-577r-224,0r0,577r224,0xm561,-559r-448,0r0,-98r448,0r0,98","w":674},"\u03a9":{"d":"935,-477v1,64,-47,111,-111,111r-95,0r0,237r271,0r0,130r-388,0r0,-490r184,0r0,-953r-531,1r-1,952r184,0r0,490r-389,0r0,-130r272,0r0,-237r-95,0v-64,1,-111,-47,-111,-111r0,-977v-1,-64,47,-111,111,-111r585,0v64,-1,114,47,114,111r0,977","w":1056},"\u2126":{"d":"935,-477v1,64,-47,111,-111,111r-95,0r0,237r271,0r0,130r-388,0r0,-490r184,0r0,-953r-531,1r-1,952r184,0r0,490r-389,0r0,-130r272,0r0,-237r-95,0v-64,1,-111,-47,-111,-111r0,-977v-1,-64,47,-111,111,-111r585,0v64,-1,114,47,114,111r0,977","w":1056},"\u00e6":{"d":"1061,-113v0,75,-38,113,-113,113r-311,0v-36,0,-65,-10,-88,-29v-207,23,-319,35,-336,35v-73,0,-109,-36,-109,-108r0,-355v0,-75,38,-112,113,-112r307,0r0,-293r-280,0r0,166r-129,0r0,-164v0,-75,37,-113,112,-113r721,0v75,0,113,38,113,113r0,352r-47,45r-363,0r0,352r281,0r0,-178r129,0r0,176xm932,-567r0,-295r-281,0r0,295r281,0xm524,-117r0,-348r-291,0r0,356","w":1169},"\u00f8":{"d":"764,-877r-746,877r0,-102r746,-873r0,98xm668,-113v0,75,-38,113,-113,113r-334,0v-75,0,-112,-38,-112,-113r0,-747v0,-75,37,-113,112,-113r334,0v75,0,113,38,113,113r0,747xm535,-117r0,-739r-293,0r0,739r293,0","w":776},"\u00bf":{"d":"475,-1389r-151,0r0,-176r151,0r0,176xm207,0v-64,1,-113,-47,-113,-111r0,-352v0,-40,10,-75,31,-106r205,-312r0,-331r139,0r0,299v0,43,-10,79,-29,108r-207,309r0,373r320,0r0,-352r139,0r0,364v1,64,-48,111,-112,111r-373,0","w":782},"\u00a1":{"d":"279,-1389r-150,0r0,-176r150,0r0,176xm281,0r-154,0r31,-1212r92,0","w":408},"\u00ac":{"d":"823,-332r-124,0r0,-292r-580,0r0,-124r704,0r0,416","w":942},"\u221a":{"d":"844,-1565r-428,1567r-119,0r-262,-543r145,0r164,377r361,-1401r139,0","w":887},"\u0192":{"d":"612,-1565r-14,117r-190,0r-66,475r168,0r-18,117r-168,0r-156,1112v-11,75,-53,113,-127,113r-166,0r14,-117r148,0r156,-1108r-113,0r18,-117r113,0r65,-479v11,-75,54,-113,130,-113r206,0","w":625},"\u2248":{"d":"864,-804v5,104,-108,96,-186,66r-377,-144r0,158r-131,0r0,-209v-5,-104,109,-94,186,-65r377,143r0,-158r131,0r0,209xm864,-409v5,104,-108,96,-186,66r-377,-144r0,158r-131,0r0,-209v-5,-104,109,-94,186,-65r377,143r0,-158r131,0r0,209","w":1034},"\u0394":{"d":"479,-1569r296,1451r0,118r-730,0r0,-122r297,-1447r137,0xm637,-132r-229,-1187r-228,1187r457,0"},"\u2206":{"d":"479,-1569r296,1451r0,118r-730,0r0,-122r297,-1447r137,0xm637,-132r-229,-1187r-228,1187r457,0"},"\u00ab":{"d":"813,-156r-143,0r-250,-379r0,-40r250,-379r143,0r0,8r-254,391xm469,-156r-141,0r-250,-379r0,-40r250,-379r141,0r0,8r-252,391","w":915},"\u00bb":{"d":"838,-535r-248,379r-144,0r0,-8r254,-391r-254,-399r144,0r248,379r0,40xm496,-535r-250,379r-142,0r0,-8r252,-391r-252,-399r142,0r250,379r0,40","w":915},"\u2026":{"d":"926,0r-150,0r0,-176r150,0r0,176xm586,0r-150,0r0,-176r150,0r0,176xm246,0r-152,0r0,-176r152,0r0,176","w":1022},"\u00a0":{"w":201},"\u00c0":{"d":"756,0r-138,0r-55,-348r-311,0r-55,348r-134,0r279,-1569r137,0xm545,-471r-137,-848r-138,848r275,0xm514,-1653r-92,0r-246,-231r0,-4r188,0r150,229r0,6"},"\u00c3":{"d":"756,0r-138,0r-55,-348r-311,0r-55,348r-134,0r279,-1569r137,0xm545,-471r-137,-848r-138,848r275,0xm627,-1845v-3,87,24,201,-74,196v-65,-3,-190,-62,-254,-90r0,88r-106,0v3,-86,-24,-201,73,-196v65,3,190,62,254,90r0,-88r107,0"},"\u00d5":{"d":"674,-1565v64,-1,112,47,112,111r0,1343v1,64,-48,111,-112,111r-438,0v-64,1,-111,-47,-111,-111r0,-1343v-1,-64,47,-111,111,-111r438,0xm647,-123r0,-1319r-383,0r0,1319r383,0xm673,-1847v-3,87,24,201,-74,196v-65,-3,-190,-62,-254,-90r0,88r-106,0v3,-86,-24,-201,73,-196v65,3,190,62,254,90r0,-88r107,0","w":911},"\u0152":{"d":"125,-1454v-1,-64,47,-111,111,-111r874,0r0,123r-365,0r0,584r334,0r0,125r-334,0r0,610r371,0r0,123r-880,0v-64,1,-111,-47,-111,-111r0,-1343xm606,-123r0,-1319r-342,0r0,1319r342,0","w":1208},"\u0153":{"d":"1065,-113v0,75,-38,113,-113,113r-731,0v-75,0,-112,-38,-112,-113r0,-747v0,-75,37,-113,112,-113r731,0v75,0,113,38,113,113r0,350r-47,47r-363,0r0,352r283,0r0,-178r127,0r0,176xm938,-569r0,-293r-283,0r0,293r283,0xm530,-111r0,-751r-290,0r0,751r290,0","w":1174},"\u2013":{"d":"774,-535r-678,0r0,-124r678,0r0,124","w":870},"\u2014":{"d":"1194,-535r-1098,0r0,-124r1098,0r0,124","w":1292},"\u201c":{"d":"541,-1565r-37,492r-148,0r95,-492r90,0xm254,-1565r-37,492r-149,0r96,-492r90,0","w":629},"\u201d":{"d":"561,-1565r-96,492r-90,0r37,-492r149,0xm272,-1565r-94,492r-90,0r37,-492r147,0","w":629},"\u2018":{"d":"254,-1565r-37,492r-149,0r96,-492r90,0","w":340},"\u2019":{"d":"272,-1565r-94,492r-90,0r37,-492r147,0","w":340},"\u00f7":{"d":"418,-1050v57,0,105,49,105,106v0,57,-48,107,-105,107v-56,0,-104,-50,-104,-107v0,-57,48,-106,104,-106xm768,-625r-698,0r0,-126r698,0r0,126xm418,-537v57,0,105,50,105,107v0,57,-48,106,-105,106v-56,0,-104,-49,-104,-106v0,-57,48,-107,104,-107","w":838},"\u25ca":{"d":"798,-574r-347,508r-72,0r-349,-508r349,-508r72,0xm659,-574r-245,-371r-245,371r245,371","w":826},"\u00ff":{"d":"657,-973r-234,965r-97,377r-131,0r98,-377r-240,-965r137,0r166,766r168,-766r133,0xm559,-1059r-147,0r0,-151r147,0r0,151xm301,-1059r-147,0r0,-151r147,0r0,151","w":711},"\u0178":{"d":"754,-1556r-190,633v-24,63,-56,169,-95,317r0,606r-139,0r0,-606v-8,-73,-88,-293,-95,-317r-190,-633r0,-9r141,0r215,783r213,-783r140,0r0,9xm602,-1653r-147,0r0,-151r147,0r0,151xm344,-1653r-147,0r0,-151r147,0r0,151","w":799},"\u2044":{"d":"649,-1556r-860,1556r-115,0r0,-8r861,-1557r114,0r0,9","w":325},"\u2215":{"d":"649,-1556r-860,1556r-115,0r0,-8r861,-1557r114,0r0,9","w":325},"\u00a4":{"d":"1095,-1099r-177,178r0,395r177,177r-118,118r-194,-194r-330,0r-193,194r-118,-118r177,-178r0,-395r-177,-177r118,-118r194,194r330,0r193,-194xm754,-574r0,-302r-271,0r0,303","w":1221},"\u2039":{"d":"469,-156r-141,0r-250,-379r0,-40r250,-379r141,0r0,8r-252,391","w":573},"\u203a":{"d":"496,-535r-250,379r-142,0r0,-8r252,-391r-252,-399r142,0r250,379r0,40","w":573},"\uf001":{"d":"756,0r-131,0r0,-856r-336,0r0,856r-131,0r0,-856r-113,0r0,-117r113,0r0,-479v0,-75,37,-113,112,-113r373,0v75,0,113,38,113,113r0,266r-131,0r0,-262r-336,0r0,475r467,0r0,973","w":872},"\ufb01":{"d":"756,0r-131,0r0,-856r-336,0r0,856r-131,0r0,-856r-113,0r0,-117r113,0r0,-479v0,-75,37,-113,112,-113r373,0v75,0,113,38,113,113r0,266r-131,0r0,-262r-336,0r0,475r467,0r0,973","w":872},"\uf002":{"d":"756,0r-131,0r0,-1448r-336,0r0,475r166,0r0,117r-166,0r0,856r-131,0r0,-856r-113,0r0,-117r113,0r0,-479v0,-75,37,-113,112,-113r486,0r0,1565","w":872},"\ufb02":{"d":"756,0r-131,0r0,-1448r-336,0r0,475r166,0r0,117r-166,0r0,856r-131,0r0,-856r-113,0r0,-117r113,0r0,-479v0,-75,37,-113,112,-113r486,0r0,1565","w":872},"\u2021":{"d":"815,-424r-301,0r0,424r-129,0r0,-424r-301,0r0,-117r301,0r0,-483r-301,0r0,-117r301,0r0,-424r129,0r0,424r301,0r0,117r-301,0r0,483r301,0r0,117","w":899},"\u00b7":{"d":"246,-522r-152,0r0,-178r152,0r0,178","w":340},"\u2219":{"d":"246,-522r-152,0r0,-178r152,0r0,178","w":340},"\u201a":{"d":"256,-252r-96,492r-90,0r36,-492r150,0","w":340},"\u201e":{"d":"561,-252r-96,492r-90,0r37,-492r149,0xm272,-252r-94,492r-90,0r37,-492r147,0","w":629},"\u2030":{"d":"473,-1565v50,-2,98,53,98,103r0,591v1,54,-44,102,-98,102r-291,0v-47,2,-96,-55,-96,-102r0,-591v-2,-45,50,-103,96,-103r291,0xm450,-881r0,-567r-243,0r0,567r243,0xm1177,-1560r-860,1556r-115,0r0,-8r861,-1557r114,0r0,9xm1191,-796v50,-2,98,53,98,103r0,591v1,54,-44,102,-98,102r-291,0v-47,2,-96,-55,-96,-102r0,-591v-2,-45,50,-103,96,-103r291,0xm1168,-112r0,-567r-243,0r0,567r243,0xm1791,-796v50,-2,98,53,98,103r0,591v1,54,-44,102,-98,102r-291,0v-47,2,-96,-55,-96,-102r0,-591v-2,-45,50,-103,96,-103r291,0xm1768,-112r0,-567r-243,0r0,567r243,0","w":1985},"\u00c2":{"d":"756,0r-138,0r-55,-348r-311,0r-55,348r-134,0r279,-1569r137,0xm545,-471r-137,-848r-138,848r275,0xm645,-1638r-86,0r-151,-117r-152,117r-82,0r0,-8r197,-227r78,0r196,227r0,8"},"\u00ca":{"d":"639,0r-514,0r0,-1565r508,0r0,123r-369,0r0,584r336,0r0,125r-336,0r0,610r375,0r0,123xm614,-1653r-86,0r-151,-117r-152,117r-82,0r0,-8r197,-227r78,0r196,227r0,8","w":731},"\u00c1":{"d":"756,0r-138,0r-55,-348r-311,0r-55,348r-134,0r279,-1569r137,0xm545,-471r-137,-848r-138,848r275,0xm639,-1884r-245,231r-93,0r0,-6r150,-229r188,0r0,4"},"\u00cb":{"d":"639,0r-514,0r0,-1565r508,0r0,123r-369,0r0,584r336,0r0,125r-336,0r0,610r375,0r0,123xm582,-1653r-147,0r0,-151r147,0r0,151xm324,-1653r-147,0r0,-151r147,0r0,151","w":731},"\u00c8":{"d":"639,0r-514,0r0,-1565r508,0r0,123r-369,0r0,584r336,0r0,125r-336,0r0,610r375,0r0,123xm502,-1653r-92,0r-246,-231r0,-4r188,0r150,229r0,6","w":731},"\u00cd":{"d":"272,0r-139,0r0,-1565r139,0r0,1565xm432,-1884r-245,231r-93,0r0,-6r150,-229r188,0r0,4","w":408},"\u00ce":{"d":"272,0r-139,0r0,-1565r139,0r0,1565xm439,-1654r-86,0r-151,-117r-152,117r-82,0r0,-8r197,-227r78,0r196,227r0,8","w":408},"\u00cf":{"d":"272,0r-139,0r0,-1565r139,0r0,1565xm406,-1653r-147,0r0,-151r147,0r0,151xm148,-1653r-147,0r0,-151r147,0r0,151","w":408},"\u00cc":{"d":"272,0r-139,0r0,-1565r139,0r0,1565xm308,-1653r-92,0r-246,-231r0,-4r188,0r150,229r0,6","w":408},"\u00d3":{"d":"674,-1565v64,-1,112,47,112,111r0,1343v1,64,-48,111,-112,111r-438,0v-64,1,-111,-47,-111,-111r0,-1343v-1,-64,47,-111,111,-111r438,0xm647,-123r0,-1319r-383,0r0,1319r383,0xm678,-1884r-245,231r-93,0r0,-6r150,-229r188,0r0,4","w":911},"\u00d4":{"d":"674,-1565v64,-1,112,47,112,111r0,1343v1,64,-48,111,-112,111r-438,0v-64,1,-111,-47,-111,-111r0,-1343v-1,-64,47,-111,111,-111r438,0xm647,-123r0,-1319r-383,0r0,1319r383,0xm691,-1653r-86,0r-151,-117r-152,117r-82,0r0,-8r197,-227r78,0r196,227r0,8","w":911},"\u00d2":{"d":"674,-1565v64,-1,112,47,112,111r0,1343v1,64,-48,111,-112,111r-438,0v-64,1,-111,-47,-111,-111r0,-1343v-1,-64,47,-111,111,-111r438,0xm647,-123r0,-1319r-383,0r0,1319r383,0xm566,-1653r-92,0r-246,-231r0,-4r188,0r150,229r0,6","w":911},"\u00da":{"d":"236,0v-64,1,-111,-47,-111,-111r0,-1454r139,0r0,1442r371,0r0,-1442r139,0r0,1454v1,64,-48,111,-112,111r-426,0xm666,-1883r-245,231r-93,0r0,-6r150,-229r188,0r0,4","w":899},"\u00db":{"d":"236,0v-64,1,-111,-47,-111,-111r0,-1454r139,0r0,1442r371,0r0,-1442r139,0r0,1454v1,64,-48,111,-112,111r-426,0xm685,-1653r-86,0r-151,-117r-152,117r-82,0r0,-8r197,-227r78,0r196,227r0,8","w":899},"\u00d9":{"d":"236,0v-64,1,-111,-47,-111,-111r0,-1454r139,0r0,1442r371,0r0,-1442r139,0r0,1454v1,64,-48,111,-112,111r-426,0xm566,-1652r-92,0r-246,-231r0,-4r188,0r150,229r0,6","w":899},"\u0131":{"d":"248,0r-131,0r0,-973r131,0r0,973","w":365},"\u02c6":{"d":"645,-1059r-86,0r-151,-117r-152,117r-82,0r0,-8r197,-227r78,0r196,227r0,8"},"\u02dc":{"d":"627,-1253v-3,87,24,201,-74,196v-65,-3,-190,-62,-254,-90r0,88r-106,0v3,-86,-24,-201,73,-196v65,3,190,62,254,90r0,-88r107,0"},"\u00af":{"d":"631,-1090r-443,0r0,-106r443,0r0,106"},"\u02c9":{"d":"631,-1090r-443,0r0,-106r443,0r0,106"},"\u02d8":{"d":"602,-1151v0,61,-31,92,-92,92r-201,0v-61,0,-92,-31,-92,-92r0,-129r105,0r0,125r176,0r0,-125r104,0r0,129"},"\u02d9":{"d":"483,-1059r-147,0r0,-151r147,0r0,151"},"\u02da":{"d":"602,-1151v0,61,-31,92,-92,92r-201,0v-61,0,-92,-31,-92,-92r0,-188v0,-62,31,-93,92,-93r201,0v61,0,92,31,92,93r0,188xm500,-1151r0,-188r-181,0r0,188r181,0"},"\u00b8":{"d":"592,289v0,53,-27,80,-80,80r-205,0v-53,0,-80,-27,-80,-80r0,-113r105,0r0,103r153,0r0,-107v-52,-29,-135,-49,-133,-125r0,-67r107,0r0,69v52,30,133,48,133,127r0,113"},"\u02dd":{"d":"711,-1290r-246,231r-84,0r0,-6r151,-229r179,0r0,4xm444,-1290r-245,231r-84,0r0,-6r151,-229r178,0r0,4"},"\u02db":{"d":"578,369r-273,0v-53,0,-80,-27,-80,-80v0,-85,-10,-160,39,-207r107,-102r129,0r0,8r-162,162r0,124r240,0r0,95"},"\u02c7":{"d":"651,-1288r-202,229r-78,0r-203,-229r0,-6r86,0r158,118r157,-118r82,0r0,6"},"\u0141":{"d":"492,-737r-455,336r0,-142r455,-335r0,141xm625,0r-500,0r0,-1565r139,0r0,1442r361,0r0,123","w":690},"\u0142":{"d":"338,-635r-311,234r0,-142r311,-233r0,141xm248,0r-131,0r0,-1565r131,0r0,1565","w":365},"\u0160":{"d":"625,-1565v64,-1,110,47,110,111r0,364r-139,0r0,-352r-338,0r0,330r434,522v29,35,43,74,43,117r0,362v1,64,-46,111,-110,111r-394,0v-64,1,-112,-47,-112,-111r0,-397r139,0r0,385r338,0r0,-373r-432,-522v-30,-36,-45,-76,-45,-119r0,-317v-1,-64,48,-111,112,-111r394,0xm670,-1882r-202,229r-78,0r-203,-229r0,-6r86,0r158,118r157,-118r82,0r0,6","w":856},"\u0161":{"d":"633,-113v0,75,-38,113,-113,113r-305,0v-75,0,-113,-38,-113,-113r0,-221r131,0r0,219r269,0r0,-194r-348,-285v-73,-48,-50,-158,-50,-266v0,-75,38,-113,113,-113r301,0v75,0,113,38,113,113r0,194r-129,0r0,-192r-269,0r0,170r351,285v75,50,49,178,49,290xm610,-1288r-202,229r-78,0r-203,-229r0,-6r86,0r158,118r157,-118r82,0r0,6","w":735},"\u017d":{"d":"649,0r-600,0r0,-74r440,-1368r-397,0r0,-123r557,0r0,72r-440,1370r440,0r0,123xm612,-1882r-202,229r-78,0r-203,-229r0,-6r86,0r158,118r157,-118r82,0r0,6","w":705},"\u017e":{"d":"575,0r-512,0r0,-61r355,-793r-318,0r0,-119r475,0r0,62r-356,792r356,0r0,119xm583,-1288r-202,229r-78,0r-203,-229r0,-6r86,0r158,118r157,-118r82,0r0,6","w":655},"\u00a6":{"d":"268,-811r-139,0r0,-827r139,0r0,827xm268,409r-139,0r0,-826r139,0r0,826","w":397},"\u00d0":{"d":"486,-758r-451,0r0,-143r451,0r0,143xm483,-1565v163,-3,287,120,287,283r0,999v3,162,-125,283,-287,283r-358,0r0,-1565r358,0xm449,-123v106,1,182,-67,182,-174r0,-973v2,-101,-73,-172,-174,-172r-193,0r0,1319r185,0","w":889},"\u00f0":{"d":"772,-1219r-104,29r0,1077v0,75,-38,113,-113,113r-334,0v-75,0,-112,-38,-112,-113r0,-747v0,-75,37,-113,112,-113r318,0r0,-180v-85,24,-129,36,-131,35r0,-123r131,-37r0,-172r-291,0r0,197r-129,0r0,-199v0,-75,37,-113,112,-113r324,0v116,-10,124,126,113,252v67,-18,102,-27,104,-26r0,120xm539,-117r0,-739r-297,0r0,739r297,0","w":776},"\u00dd":{"d":"754,-1556r-190,633v-24,63,-56,169,-95,317r0,606r-139,0r0,-606v-8,-73,-88,-293,-95,-317r-190,-633r0,-9r141,0r215,783r213,-783r140,0r0,9xm627,-1869r-245,231r-93,0r0,-6r150,-229r188,0r0,4","w":799},"\u00fd":{"d":"657,-973r-234,965r-97,377r-131,0r98,-377r-240,-965r137,0r166,766r168,-766r133,0xm591,-1290r-245,231r-93,0r0,-6r150,-229r188,0r0,4","w":711},"\u00de":{"d":"633,-1264v64,-1,112,47,112,111r0,721v1,64,-48,110,-112,110r-369,0r0,322r-139,0r0,-1565r139,0r0,301r369,0xm606,-444r0,-697r-342,0r0,697r342,0","w":840},"\u00fe":{"d":"668,-209v3,117,-90,209,-207,209r-219,0r0,369r-133,0r0,-1934r133,0r0,619r158,-20v67,-9,119,-13,157,-13v74,0,111,36,111,109r0,661xm535,-229r0,-625r-293,8r0,729r184,0v73,0,109,-37,109,-112","w":772},"\u00ad":{"d":"823,-624r-704,0r0,-124r704,0r0,124","w":942},"\u2212":{"d":"823,-624r-704,0r0,-124r704,0r0,124","w":942},"\u00d7":{"d":"767,-883r-205,204r204,204r-92,92r-204,-205r-204,205r-92,-91r205,-205r-204,-204r92,-91r204,204r204,-205","w":942},"\u00b9":{"d":"268,-769r-131,0r0,-398r-53,0r87,-398r97,0r0,796","w":397},"\u00b2":{"d":"414,-1565v75,-1,130,57,129,131v-1,106,6,199,-48,259r-260,289r336,0r0,117r-508,0r0,-78r361,-413r0,-191r-226,0r0,179r-119,0r0,-162v-1,-68,54,-131,123,-131r212,0","w":634},"\u00b3":{"d":"563,-888v1,62,-44,119,-106,119r-267,0v-79,0,-119,-40,-119,-121r0,-130r115,0r0,142r262,0r0,-160r-183,-113r0,-67r169,-99r0,-136r-228,0r0,129r-121,0r0,-112v0,-86,42,-129,127,-129r223,0v75,0,113,37,113,111v0,91,17,172,-47,211r-97,59r109,66v65,42,48,133,50,230","w":632},"\u00bd":{"d":"918,-796v75,-1,130,57,129,131v-1,106,6,199,-48,259r-260,289r336,0r0,117r-508,0r0,-78r361,-413r0,-191r-226,0r0,179r-119,0r0,-162v-1,-68,54,-131,123,-131r212,0xm271,-769r-131,0r0,-398r-53,0r87,-398r97,0r0,796xm939,-1550r-860,1556r-115,0r0,-8r861,-1557r114,0r0,9","w":1088},"\u00bc":{"d":"1095,-193r-81,0r0,193r-118,0r0,-193r-323,0r0,-85r192,-518r121,0r-190,499r200,0r0,-275r118,0r0,275r81,0r0,104xm271,-769r-131,0r0,-398r-53,0r87,-398r97,0r0,796xm1004,-1556r-860,1556r-115,0r0,-8r861,-1557r114,0r0,9","w":1100},"\u00be":{"d":"1237,-193r-81,0r0,193r-118,0r0,-193r-323,0r0,-85r192,-518r121,0r-190,499r200,0r0,-275r118,0r0,275r81,0r0,104xm1176,-1556r-860,1556r-115,0r0,-8r861,-1557r114,0r0,9xm533,-888v1,62,-44,119,-106,119r-267,0v-79,0,-119,-40,-119,-121r0,-130r115,0r0,142r262,0r0,-160r-183,-113r0,-67r169,-99r0,-136r-228,0r0,129r-121,0r0,-112v0,-86,42,-129,127,-129r223,0v75,0,113,37,113,111v0,91,17,172,-47,211r-97,59r109,66v65,42,48,133,50,230","w":1300},"\u20ac":{"d":"619,-1565v64,-1,113,47,113,111r0,264r-140,0r0,-252r-308,0r0,445r397,0r0,121r-397,0r0,166r397,0r0,119r-397,0r0,468r308,0r0,-255r140,0r0,267v1,64,-49,111,-113,111r-363,0v-64,1,-111,-47,-111,-111r0,-480r-92,0r0,-119r92,0r0,-166r-92,0r0,-121r92,0r0,-457v-1,-64,47,-111,111,-111r363,0","w":826}}});
